svm_type c_svc
kernel_type linear
nr_class 2
total_sv 14
rho 1.03346
label 0 1
probA -37.3472
probB -34.635
nr_sv 5 9
SV
0.001 1:-0.83405937 2:0.6442932 3:0.55605335 4:-0.91434449 5:-1.5506393 6:-0.3980388 7:-0.76383921 8:-0.33805571 9:2.2170471 10:0.82368397 11:-0.34307222 12:-0.70081544 13:0.65273434 14:0.1037223 15:-1.734974 16:-2.2544125 17:-2.575989 18:-0.83722152 19:-0.66418383 20:-2.241289 21:0.74778027 22:6.1886578 23:-0.88710662 24:-0.95409938 25:-0.44447595 26:0.69507552 27:1.5938026 28:-1.4509794 29:0.037763181 30:1.2560568 31:-0.82671048 32:-1.1839817 33:-0.96192311 34:0.25710869 35:-0.53637024 36:0.50734591 37:0.087121442 38:-0.46254124 39:-1.42737 40:1.3690203 41:-0.35992074 42:0.50886546 43:-1.4343562 44:-1.5096805 45:-0.74759016 46:-1.1503529 47:-0.66863854 48:1.9968117 49:-1.2029909 50:-1.2948825 51:-0.7671393 52:-1.0665444 53:-1.0841752 54:-0.63458245 55:-0.31160077 56:5.347073 57:-0.98058038 58:-1.2850679 59:-0.85216523 60:0.58838438 61:1.0475954 62:-2.0059386 63:0.0025706528 64:0.31227048 65:-1.2020405 66:-1.7347507 67:-1.0344043 68:1.4140266 69:-1.560274 70:-0.036944859 
0.001 1:-1.0341764 2:2.5657772 3:0.17391939 4:-1.3875174 5:-2.6827767 6:-0.68879267 7:0.94866943 8:-0.90282757 9:0.095613872 10:-0.099301747 11:0.58846609 12:1.4449267 13:1.9000914 14:1.6505996 15:0.37180373 16:0.95863345 17:1.0605354 18:0.49087002 19:1.0967635 20:0.084261629 21:1.189421 22:-0.72099666 23:-1.2216931 24:2.5639998 25:-1.2035816 26:0.82187149 27:-1.0761214 28:2.1866311 29:-1.0943818 30:-1.2239817 31:-0.93290757 32:-0.23304357 33:-1.3235715 34:2.0383221 35:-1.4981672 36:1.8288468 37:-0.016275936 38:-1.3270413 39:-0.13600068 40:-1.0360927 41:1.3896491 42:-1.7512046 43:0.38591499 44:-0.43937053 45:-1.4547349 46:-1.1347932 47:-1.3988184 48:-1.0924419 49:-1.6890787 50:-1.4891314 51:-1.3699964 52:-1.4336751 53:-1.3295475 54:-1.2690532 55:-1.3530008 56:-0.85341562 57:-1.2087742 58:2.0130612 59:-1.0453357 60:0.33318006 61:-1.0940953 62:1.2836436 63:-1.1309261 64:-1.1375678 65:-1.0490417 66:0.18153094 67:-1.2553343 68:1.6770987 69:-1.2892446 70:0.58725976 
0.001 1:-0.93603129 2:0.15483916 3:0.30991736 4:-0.62312725 5:-0.01247877 6:-0.76720406 7:-0.82249611 8:-1.0900354 9:-0.075450792 10:0.19956888 11:0.37326869 12:0.49292219 13:1.577337 14:0.82580343 15:-0.25225156 16:0.2077414 17:0.3386798 18:-0.35079052 19:-0.20535202 20:-1.1558043 21:1.3373025 22:-0.60984455 23:-1.2744123 24:3.5596678 25:0.56612758 26:1.3081151 27:-1.1612596 28:2.4795114 29:-0.84178139 30:-1.1862073 31:-1.2377021 32:-0.88131993 33:-0.83149765 34:2.3954166 35:-1.563888 36:0.85037975 37:-0.30893399 38:-2.1939758 39:-1.9506225 40:-0.56565 41:-0.19354098 42:-0.84251176 43:-0.31641377 44:-2.6270024 45:-1.8858229 46:-1.0031928 47:-1.3240255 48:-0.98207792 49:-0.3423048 50:-0.30928633 51:-0.89721994 52:-0.63427051 53:-0.62122488 54:-0.78247013 55:-0.97123443 56:-0.79585374 57:-1.2350729 58:2.7116472 59:0.18246261 60:-0.045344425 61:-1.1917377 62:1.9865275 63:-0.96734014 64:-1.0889961 65:-1.4947247 66:-1.3359472 67:-0.7925943 68:2.1254628 69:-0.59231171 70:1.236371 
0.001 1:-0.82326423 2:2.526325 3:3.0185859 4:-1.5023947 5:-2.7775396 6:0.037415704 7:-1.2615525 8:-0.65292391 9:4.2785155 10:-0.36313338 11:0.901346 12:2.1286381 13:1.5051494 14:1.2040594 15:0.58096055 16:0.83333853 17:0.69506067 18:0.33683563 19:0.6983477 20:-0.47461312 21:0.74922067 22:-0.20489524 23:-0.72664171 24:0.40498633 25:-0.44717381 26:2.0209797 27:-0.88907903 28:0.37543752 29:-0.54255982 30:-0.6471383 31:-0.42445289 32:0.025923632 33:-0.99999708 34:-0.73763181 35:-2.6934811 36:0.617096 37:-3.1524126 38:-3.2041919 39:-2.5283266 40:-2.4922019 41:-0.62929223 42:-2.8557828 43:-2.8758878 44:-2.6747125 45:-1.8025609 46:-1.5261319 47:-1.5325541 48:-1.0398711 49:-1.620425 50:-1.1300328 51:-1.0148258 52:-1.0935682 53:-1.1356456 54:-1.1120667 55:-1.2366785 56:-0.86363717 57:-1.0837122 58:-0.029942391 59:-0.96164389 60:-0.22438782 61:-1.0932254 62:-1.0441637 63:-0.85261675 64:-0.92104398 65:-0.83384286 66:-0.51871162 67:-1.165155 68:-1.5988991 69:-0.20512678 70:2.1171566 
0.001 1:-0.8999632 2:5.7707667 3:0.27218151 4:-1.4695549 5:-2.3389961 6:-0.7802282 7:6.8044055 8:-0.74988585 9:-0.36919057 10:-0.37009914 11:0.29378615 12:0.98754041 13:1.3639069 14:1.5419316 15:0.18030716 16:0.84810805 17:0.92339362 18:0.4528331 19:0.84034188 20:0.043033019 21:1.0177293 22:-0.9160747 23:-1.2776678 24:3.2387143 25:-0.7704375 26:-0.10282527 27:-0.87527411 28:1.0795783 29:-1.0939525 30:-1.217904 31:-0.90497345 32:0.96932215 33:-1.4437546 34:2.0582699 35:-0.30138536 36:6.401644 37:2.0596692 38:0.35288666 39:3.5389205 40:1.0056849 41:7.4667151 42:-0.48634665 43:4.522079 44:2.3230531 45:-0.7111829 46:-1.2022767 47:-1.2712277 48:-1.2450225 49:-0.84689764 50:-0.64705308 51:-1.3221512 52:-1.7127117 53:-1.6403867 54:-1.470289 55:-1.315443 56:-1.0270842 57:-1.179966 58:4.9977033 59:-0.17797319 60:0.6221888 61:-0.62923583 62:1.059311 63:-0.97136337 64:-0.99500825 65:-0.68867435 66:2.4822353 67:-1.2892286 68:3.0924459 69:-1.2892446 70:5.8581648 
-0.0002568288610207908 1:-1.7350627 2:0.46448072 3:-0.070508062 4:-1.5550201 5:0.42678304 6:-1.7013775 7:1.388146 8:-1.5795241 9:-0.49734344 10:1.3057723 11:0.61077644 12:1.4277795 13:1.8180363 14:1.3298285 15:0.25215005 16:0.16814532 17:0.39584212 18:-0.32115062 19:0.37873644 20:0.63081868 21:0.15897813 22:-0.75008777 23:-1.3501194 24:-0.43389736 25:-0.92367264 26:-1.3382184 27:-0.7576533 28:3.2204309 29:-1.0265021 30:-0.95986056 31:1.6927586 32:1.006104 33:-1.4669528 34:2.308123 35:-0.8438264 36:0.42395224 37:-0.58468333 38:-0.375044 39:-0.90498372 40:-0.48564447 41:0.66984445 42:-0.68978886 43:-0.56110558 44:-1.6360618 45:-0.82138717 46:-0.40561956 47:-1.1500601 48:-1.5594654 49:-1.692381 50:-1.391706 51:-1.1328897 52:-0.62481759 53:-1.0396415 54:-0.68309438 55:-0.96432503 56:-0.85411145 57:-1.2563321 58:-0.61307167 59:-0.36911666 60:-1.2188094 61:-0.63720523 62:2.5465437 63:-0.96986683 64:-0.86442994 65:1.8885797 66:1.2440386 67:-1.2421859 68:1.7546305 69:2.5051677 70:-0.65733391 
-0.001 1:-0.59120667 2:0.71510639 3:-0.42241663 4:-0.55285147 5:0.84131872 6:-0.88036502 7:-0.19960858 8:-0.73592201 9:0.96465518 10:1.124315 11:2.1106627 12:1.1638408 13:0.95120024 14:0.81845554 15:0.45590613 16:1.2401744 17:0.56225722 18:1.2144343 19:-0.20550417 20:1.3673147 21:0.86442188 22:-0.30724044 23:-1.0869361 24:2.7295785 25:-0.42772157 26:1.1396738 27:-0.73157822 28:0.19507075 29:-1.0978762 30:-0.86365261 31:-0.89574251 32:0.71230304 33:-1.2275569 34:0.87321554 35:0.34113884 36:0.64624366 37:-0.074946014 38:0.79520737 39:0.50763082 40:0.70931229 41:-0.20234796 42:0.49373062 43:-0.54846231 44:-0.66187328 45:-0.42116465 46:-0.86307438 47:0.61888091 48:-0.54418169 49:-1.1177621 50:-1.0900579 51:-1.0272834 52:-0.78490539 53:-1.5571146 54:-1.501934 55:-0.99192747 56:-0.61396382 57:-1.1096592 58:1.8232675 59:-0.52774922 60:0.30887979 61:-0.88904774 62:-0.079930488 63:-1.0875494 64:-0.85112766 65:-1.2297836 66:0.26292576 67:-1.1404123 68:-0.28000818 69:-0.59231171 70:-0.034477608 
-0.0006624218684872816 1:-0.18309969 2:0.30362912 3:0.47632461 4:-0.011857973 5:1.3060154 6:-0.44763895 7:0.68032346 8:-0.39202236 9:-0.14330877 10:0.15680522 11:1.2532106 12:1.506577 13:1.4121983 14:0.89035023 15:0.1380809 16:-0.49993277 17:0.10757466 18:-0.82835735 19:-1.0192777 20:-0.93533741 21:-2.8516023 22:3.2624071 23:-1.1276889 24:0.33758821 25:-1.0220115 26:-1.6608038 27:-1.1327535 28:0.25677976 29:-0.79635312 30:-1.3050691 31:-0.95153442 32:1.903446 33:-0.83276836 34:1.6870465 35:-0.48118936 36:0.87471868 37:0.25614644 38:-0.37055414 39:-0.3586834 40:0.7104033 41:-0.13349821 42:0.3033462 43:-0.74080846 44:-0.4682476 45:-1.485848 46:-0.40805597 47:-0.93519735 48:-1.1145691 49:-1.1467517 50:-1.0226553 51:-0.94578772 52:-1.0438815 53:0.33734445 54:-1.2334927 55:0.27795879 56:3.1114247 57:-1.0486836 58:0.18371742 59:-1.141254 60:-1.7534044 61:-1.2307129 62:0.6209857 63:-0.59830818 64:-1.1829871 65:-1.1923141 66:2.0184035 67:-0.96664766 68:0.53260969 69:0.33693211 70:0.1165635 
-0.0002198935631495943 1:-1.2926101 2:1.2671826 3:-0.54397191 4:-1.23518 5:0.31879918 6:-1.5057511 7:0.63204468 8:-1.5165176 9:0.72138072 10:1.3846207 11:0.08025558 12:-0.0020186081 13:0.28337168 14:0.61936962 15:0.077666847 16:0.047919959 17:-0.71065948 18:-0.83590929 19:-0.96298891 20:-1.5781167 21:-1.4911806 22:0.35208434 23:1.3588878 24:0.28257252 25:2.1302173 26:-0.80108812 27:0.28141481 28:0.9864149 29:0.87294715 30:-0.29230871 31:-0.59374822 32:-0.16440411 33:-0.92079403 34:0.76231688 35:-0.5758234 36:1.1607144 37:0.47587283 38:-0.53603651 39:0.30200102 40:-0.81589079 41:0.40782633 42:-1.3225445 43:0.83497221 44:-0.30591157 45:0.78582099 46:-0.19749677 47:-0.4597496 48:-0.18455467 49:-1.332222 50:-0.37194718 51:-0.90373672 52:-0.20288782 53:0.24715389 54:0.31993936 55:0.88760845 56:0.46394417 57:1.6479691 58:-0.014025486 59:1.6890634 60:-0.73357367 61:0.33606071 62:1.2654413 63:1.9960534 64:-0.34703041 65:-0.61138924 66:0.53207635 67:-0.79639802 68:0.77531952 69:-0.20512678 70:0.28513804 
-0.0004553572057695248 1:0.061430091 2:1.0011751 3:0.54614243 4:-0.073060612 5:0.80026381 6:-0.74169842 7:0.78309209 8:-0.3420653 9:1.2622201 10:0.74119189 11:0.60995001 12:-0.78852359 13:-1.054235 14:-0.025129307 15:-0.56083474 16:-0.62008653 17:-2.1226623 18:-1.770004 19:-0.53893735 20:-0.6291183 21:0.2071601 22:1.141139 23:-0.90784773 24:0.04558375 25:2.6444632 26:1.4646374 27:1.4009662 28:1.0681574 29:-1.0109704 30:0.79703443 31:-0.87641883 32:-1.2268821 33:-1.1684949 34:1.5976111 35:0.5087941 36:0.67971788 37:0.17239056 38:0.13146351 39:-0.60673317 40:-0.18761006 41:0.40165082 42:0.12752099 43:-0.45286939 44:-0.79879684 45:-0.35005042 46:-0.15512928 47:-0.90909797 48:0.14150922 49:-0.022493066 50:0.53620029 51:0.0037887657 52:0.75656504 53:0.3277515 54:0.29937673 55:-0.32449872 56:0.65547213 57:-1.0108212 58:0.050137965 59:1.7794579 60:1.1071501 61:1.2556697 62:1.929349 63:-1.0625874 64:1.4849028 65:-0.19325665 66:-1.3461307 67:-1.0560446 68:1.9281678 69:-0.88270041 70:-0.73543269 
-0.0004678798240467953 1:-0.98371566 2:1.127741 3:0.16555904 4:-0.82806031 5:0.23463993 6:-1.5674124 7:1.7037628 8:-1.2903961 9:0.23766214 10:1.544204 11:0.29452584 12:-0.10704492 13:-0.44306343 14:0.6339546 15:0.85700377 16:0.2826243 17:0.52177023 18:-1.1916124 19:-0.82946827 20:-0.88020417 21:-0.58952732 22:1.0472354 23:0.067334364 24:0.42232368 25:1.541586 26:-0.22332632 27:0.15040251 28:0.26809194 29:-0.69925096 30:-0.64522145 31:-0.74117693 32:0.27983683 33:-0.54060319 34:0.96400821 35:0.22870985 36:1.1020839 37:0.22845321 38:1.1608464 39:0.96613673 40:-1.5709319 41:0.94887517 42:-0.74915045 43:0.44362475 44:-0.22662307 45:-0.79738243 46:-1.1474716 47:-0.098865317 48:-0.29863275 49:-1.0965796 50:-0.88777624 51:-0.048213534 52:-0.87588895 53:-0.078465908 54:0.59480692 55:0.86202842 56:1.6675072 57:0.011822454 58:0.57207398 59:1.2222164 60:-0.20155696 61:0.94668403 62:1.1975278 63:-0.44116934 64:-0.55001447 65:-0.4909567 66:0.82001171 67:-0.16045502 68:0.53138714 69:-0.59231171 70:0.19930775 
-0.000711708948070872 1:-0.49021796 2:-0.098977163 3:-0.83555469 4:-0.68624167 5:-0.40188861 6:-0.4440414 7:-0.24444765 8:-0.38751436 9:-0.090071944 10:0.70972358 11:0.59961852 12:1.4984318 13:0.73912647 14:-0.40029171 15:0.83826512 16:1.1696662 17:1.177199 18:2.0063755 19:-0.11708821 20:0.76806689 21:1.5266045 22:-0.32249115 23:-0.43492969 24:1.6932227 25:-1.0355296 26:1.3528609 27:-0.56199362 28:0.37776972 29:-0.76734593 30:-0.54130281 31:-0.90562783 32:0.14494904 33:-0.55236963 34:0.36578541 35:-0.19120861 36:-0.11843641 37:-0.016832023 38:0.16885902 39:-0.23560067 40:0.09237703 41:-0.12518337 42:-0.11774433 43:-0.53002728 44:0.26262508 45:-0.64223721 46:-1.1000417 47:-0.57396396 48:-1.1859149 49:-0.49786073 50:-1.434004 51:-1.0334161 52:-1.1724747 53:-1.1942336 54:-1.2043025 55:-1.4471238 56:-0.63223767 57:-0.28405584 58:0.91965584 59:-1.110471 60:0.67876313 61:-0.74227068 62:-0.75831166 63:-0.7743092 64:-0.86031165 65:-1.1578419 66:-0.10216416 67:-0.77344579 68:-0.51036386 69:-0.20512678 70:-0.63610707 
-0.0005643862524834426 1:-0.42567881 2:0.22224276 3:0.28817042 4:-0.060783332 5:0.79665456 6:-0.50072694 7:-0.41749086 8:-0.6483983 9:-1.0893644 10:0.12637444 11:0.53303904 12:0.70123186 13:0.66185807 14:0.11085718 15:0.56989027 16:1.4369537 17:0.52597491 18:1.6758934 19:0.26549839 20:1.2208686 21:0.98198793 22:-0.6830721 23:0.11109666 24:0.00011079204 25:-0.98618825 26:0.28621036 27:-0.77165769 28:2.0491601 29:-0.83547574 30:-0.83976348 31:-0.67058821 32:0.98244937 33:-1.0685208 34:1.263851 35:-1.6828891 36:0.14930754 37:-1.1851889 38:-1.3286448 39:-1.3714527 40:-1.2605308 41:-0.36964187 42:-1.9183292 43:-1.178305 44:-0.56952855 45:-1.1628812 46:-1.5035581 47:-0.99644013 48:-1.4699835 49:-0.7630956 50:-1.9482232 51:-1.2292127 52:-1.2470331 53:-1.3722982 54:-1.6599837 55:-1.6661042 56:-0.83865904 57:1.1630724 58:0.061398578 59:-0.93108348 60:0.070778249 61:-0.88980311 62:-0.42164903 63:-0.90360218 64:-0.97844895 65:-0.54062518 66:0.28394101 67:-1.0471383 68:-0.94641662 69:-0.88270041 70:-0.089259601 
-0.0006615234769716982 1:-1.2583341 2:0.042049396 3:1.6245367 4:-1.4043815 5:-1.011222 6:-1.200318 7:-0.34206993 8:-1.1208155 9:1.2614664 10:1.446889 11:0.047609176 12:1.5679662 13:1.1627095 14:-0.027175161 15:-0.055130801 16:-1.5690758 17:0.50703449 18:-1.2047856 19:1.2724523 20:0.16321427 21:0.91258358 22:-0.72226312 23:-0.8807622 24:-0.91114161 25:-1.2304947 26:2.3569453 27:3.5995872 28:1.3272937 29:-0.59909657 30:0.40612656 31:0.57216916 32:-0.36993763 33:-0.97888777 34:0.55026204 35:-1.0731489 36:-0.26635996 37:-0.84971146 38:-0.74857762 39:0.12627846 40:-2.0162093 41:-0.33112013 42:-0.60768211 43:-0.45611038 44:-1.1042233 45:0.0012166119 46:-1.3800845 47:-1.3298663 48:-0.094085555 49:-0.15398038 50:0.67647545 51:-0.61060101 52:-0.060128085 53:-0.68219791 54:0.36844794 55:-0.64161171 56:-0.95652009 57:-0.89608831 58:-0.98810623 59:-1.2670668 60:1.9336025 61:2.0502347 62:0.31181899 63:-0.58029504 64:0.28098278 65:0.55328417 66:0.51010913 67:-1.0158511 68:-0.66258121 69:-1.1085583 70:0.23868871 
