svm_type c_svc
kernel_type linear
nr_class 4
total_sv 36
rho -0.0849133 -2.84752 -0.166828 0.0872719 -0.0926731 -0.13839
label 0 1 2 3
probA -2.86644 -2.16696 -2.93964 -2.71457 -2.91345 -2.84996
probB -0.171134 -0.0690863 0.274956 -0.0585348 0.388718 0.418126
nr_sv 9 5 9 13
SV
0.003495335456237543 0 0.003523022499476957 1:-0.81051816 2:-0.40869797 3:0.5159807 4:-0.9586534 5:-1.4001507 6:-0.64957239 7:0.37259274 8:-0.72195851 9:-0.49846817 10:0.47467224 11:1.596266 12:-0.2668235 13:0.32776536 14:-0.41999146 15:0.31522132 16:0.44984134 17:0.30157479 18:0.8484892 19:1.4775683 20:0.31469168 21:-0.56445079 22:-0.36841346 23:-0.53205513 24:-0.68159099 25:-0.85184085 26:0.64240648 27:-0.62716277 28:-0.54014378 29:-0.38561976 30:1.0337574 31:0.88089494 32:-0.27003836 33:-0.09416172 34:-0.32449784 35:-0.28306562 36:-0.43910571 37:-0.61201699 38:-0.4774905 39:-0.65494382 40:0.24295632 41:0.25556136 42:-0.3059426 43:-0.25503947 44:0.15141798 45:0.26229146 46:-0.065375645 47:0.12069208 48:-0.019004948 49:-0.26841695 50:-0.41590147 51:-0.4710792 52:-0.6899391 53:-0.24740096 54:-0.30324058 55:-0.26855008 56:-0.3302459 57:-0.42740326 58:-0.84495741 59:-0.75888211 60:2.0684114 61:-0.60057851 62:-0.57025649 63:-0.18685424 64:1.5220668 65:1.5260348 66:0.21765436 67:0.16309491 68:-0.52831569 69:0.084664719 70:-0.30093557 
0.02933583914094755 0 0.02858212438358247 1:-0.528382 2:-0.4033555 3:-0.12867547 4:-0.78893434 5:-1.343706 6:-0.2496327 7:-0.46948521 8:-0.42132745 9:0.36756608 10:0.34163961 11:1.0962287 12:-0.34357278 13:0.34662558 14:-0.18522685 15:0.22863734 16:0.54960255 17:0.42114192 18:0.57003857 19:0.96157925 20:0.0206916 21:-0.18844631 22:0.04513825 23:0.13810828 24:1.0314184 25:-0.64635055 26:-0.59794924 27:-0.50167524 28:0.99969499 29:-0.073057321 30:1.1955038 31:1.3564251 32:0.70789348 33:0.53769319 34:0.41571898 35:-0.34524096 36:-0.46084214 37:-0.1148697 38:-0.5444446 39:-0.49122778 40:0.23305629 41:-0.57336401 42:-0.28342251 43:-0.31211685 44:0.16042292 45:0.32866704 46:-0.057858642 47:0.021344128 48:0.058445836 49:-0.11355628 50:-0.16465726 51:-0.31636637 52:-0.43122043 53:-0.30599659 54:-0.22348766 55:-0.16346381 56:-0.019057002 57:0.26576583 58:1.2765882 59:-0.74700853 60:-0.50835143 61:-0.48484773 62:1.0241943 63:-0.13361079 64:1.3035098 65:1.4325773 66:0.77311692 67:0.52562918 68:1.2912169 69:-0.71965011 70:0.072338334 
0 0.006448386216823872 0 1:-0.61696618 2:-0.4384196 3:-0.14496684 4:-0.80890619 5:-1.1770529 6:-0.44114066 7:-0.49049229 8:-0.58375605 9:0.063792099 10:0.67661314 11:0.59634477 12:-0.25554038 13:0.64803387 14:0.037270098 15:0.58909796 16:0.96940819 17:0.40520164 18:0.87885651 19:0.93231146 20:0.092313584 21:0.26356042 22:0.37751845 23:0.1855641 24:1.2075875 25:-0.58196285 26:-0.49358202 27:-0.56294715 28:1.2544823 29:-0.29534993 30:0.27777251 31:0.81675325 32:1.0238331 33:1.2033571 34:0.73849734 35:-0.47602651 36:-0.50172843 37:-0.22330399 38:-0.62789764 39:-0.71126123 40:0.0066141506 41:-0.72485901 42:-0.33763611 43:-0.5393355 44:-0.34733113 45:0.11470089 46:-0.049386676 47:-0.48869203 48:-0.12428945 49:-0.50574065 50:-0.66426704 51:-0.68354279 52:-0.43631384 53:-0.57414794 54:-0.63169665 55:-0.090103471 56:0.22698324 57:0.26154313 58:1.4776088 59:-0.66092219 60:-0.30851238 61:-0.64169142 62:1.017688 63:-0.42988351 64:0.34210562 65:0.61263776 66:1.3379075 67:1.3324199 68:1.1392786 69:1.291137 70:1.0048437 
0 0.03280334045021345 0.003270213298478563 1:-1.1249604 2:-0.43251835 3:0.45463265 4:-1.3821906 5:-1.1935092 6:-1.2828712 7:1.543077 8:-1.2109912 9:-0.76205542 10:2.0326821 11:0.71005337 12:0.072965637 13:0.29049096 14:0.5554334 15:0.45072209 16:0.2135072 17:-0.36548466 18:-0.55744462 19:0.38978059 20:0.19356604 21:-0.25755285 22:0.24528346 23:-0.22122415 24:-0.15512539 25:0.00062809804 26:0.92381508 27:0.038546565 28:-0.32257572 29:-0.19249072 30:-0.13333378 31:0.56614512 32:0.57060328 33:-0.55576665 34:0.17417977 35:-0.90509862 36:-0.45248113 37:-0.77402285 38:-0.88712981 39:-0.43485393 40:-0.80421023 41:0.36915298 42:-0.88502738 43:-0.71574249 44:-0.71041656 45:-0.47934971 46:-0.2864649 47:-0.048218834 48:-0.72005069 49:-0.426445 50:-0.2509593 51:-0.44024548 52:-0.46129798 53:-0.44242741 54:-0.41994317 55:-0.24531682 56:0.34606978 57:0.049626384 58:-0.34733445 59:0.19105823 60:1.8589607 61:0.54205391 62:-0.56999201 63:0.3908416 64:-0.16191298 65:1.2780225 66:1.3992192 67:-0.49054372 68:-0.91708499 69:0.084664719 70:0.01985135 
0 0.2092497286445976 0 1:-0.89759735 2:-0.36329012 3:0.2080065 4:-1.2272153 5:-1.100991 6:-1.055237 7:0.64176696 8:-1.0282247 9:1.0319594 10:1.922593 11:-0.09766082 12:0.10010941 13:0.45102843 14:0.73552076 15:0.25504857 16:-0.083718858 17:-0.38137446 18:-0.55167252 19:0.53251393 20:0.32081293 21:-0.15218991 22:0.75345345 23:0.1201504 24:1.4008556 25:0.34325502 26:-0.25176741 27:0.03509905 28:0.84523977 29:0.05674427 30:1.1149058 31:2.0378963 32:2.0746772 33:-0.42984799 34:0.65307474 35:-0.72178136 36:-0.39708186 37:-0.48167751 38:-0.77980388 39:-0.34763918 40:-0.56730221 41:-0.32216626 42:-0.71334273 43:-0.67927531 44:-0.66823399 45:-0.30837679 46:-0.43832188 47:-0.29404207 48:-0.55183853 49:-0.29640791 50:-0.075705309 51:-0.23678962 52:-0.25578163 53:-0.36660694 54:-0.42305507 55:-0.28503226 56:0.63550901 57:0.16023689 58:1.3347829 59:0.21264971 60:0.54674541 61:0.32428891 62:0.52575845 63:0.26186783 64:0.76119654 65:2.0485587 66:2.3190979 67:-0.52435985 68:0.26850229 69:0.084664719 70:0.3790564 
0 0.7475271137252308 0 1:-0.94171241 2:-0.38993529 3:0.013799201 4:-1.1885633 5:-1.0123744 6:-1.1130739 7:-0.04755439 8:-1.2033499 9:0.65186417 10:1.6855224 11:0.60934022 12:0.52644377 13:1.0854564 14:0.83695557 15:0.60934256 16:0.65956846 17:0.019167212 18:0.50580396 19:0.80749136 20:0.38783191 21:-0.020165117 22:0.1829442 23:-0.45556112 24:2.21915 25:-0.19837113 26:-0.157205 27:-0.37280242 28:1.634941 29:-0.65578287 30:-0.37872179 31:-0.04707116 32:2.0877829 33:-0.75838886 34:1.3414786 35:-0.9934669 36:-0.431503 37:-0.75752539 38:-1.0433453 39:-0.70010018 40:-1.0766412 41:-0.55414373 42:-1.1479022 43:-1.0150077 44:-1.12656 45:-0.93089566 46:-0.92392472 47:-0.87340433 48:-1.2322203 49:-1.1854268 50:-0.84656315 51:-0.85788887 52:-0.88985675 53:-1.0145423 54:-0.93545552 55:-0.89747869 56:-0.037825578 57:-0.41064191 58:1.8265875 59:-0.40155531 60:0.46182646 61:-0.36772871 62:0.86105603 63:-0.60678808 64:-0.56447859 65:-0.75872091 66:1.476941 67:-0.8010208 68:0.59402857 69:1.291137 70:0.56658651 
0 0.02918091666612509 0 1:-1.0277477 2:-0.40759103 3:0.12531517 4:-1.255525 5:-0.95838573 6:-1.2270323 7:-0.017384432 8:-1.3157146 9:0.74281386 10:1.986442 11:0.43936501 12:0.74494022 13:1.0191876 14:0.92574222 15:0.72984165 16:0.93294647 17:0.04144654 18:0.64611986 19:0.24718237 20:0.28013831 21:0.35409786 22:0.11188144 23:-0.6140445 24:2.4242051 25:-0.21827766 26:-0.18627967 27:-0.45114351 28:1.7864048 29:-0.94325135 30:-0.63191706 31:1.1296788 32:2.6943175 33:-0.6659687 34:1.5051811 35:-1.181596 36:-0.45540555 37:-0.94249217 38:-1.150823 39:-0.76871437 40:-1.2833405 41:-0.74899781 42:-1.3672946 43:-1.1504821 44:-1.2269893 45:-1.1856423 46:-1.2735314 47:-1.2108693 48:-1.383187 49:-1.2456241 50:-1.009557 51:-1.0384506 52:-0.98853435 53:-1.0795153 54:-1.1610829 55:-1.2831113 56:-0.36024785 57:-0.61936014 58:1.7118777 59:-0.36195937 60:0.37111085 61:-0.5754873 62:0.92293643 63:-1.0092232 64:-0.98352588 65:0.44933656 66:1.8836455 67:-0.87970905 68:0.50255356 69:-0.71965011 70:-0.80105892 
0 0.4778906362897384 0 1:-0.98338109 2:-0.39480108 3:0.16057509 4:-1.2483973 5:-1.0132991 6:-1.1625353 7:0.19531581 8:-1.2032372 9:0.78861687 10:1.9381255 11:0.23564399 12:0.53155696 13:0.86538224 14:0.78649589 15:0.61562964 16:0.4566162 17:0.013187775 18:0.31527296 19:0.42422807 20:0.12706759 21:-0.059069215 22:0.73318154 23:-0.31993074 24:2.0040079 25:0.42825404 26:-0.21941184 27:-0.24164521 28:1.3666273 29:-0.73615657 30:-0.19609664 31:1.4669298 32:2.22193 33:-0.30486089 34:1.1497101 35:-0.99395993 36:-0.44358058 37:-0.68702515 38:-1.013567 39:-0.65565124 40:-1.0170617 41:-0.57126198 42:-1.0908448 43:-0.9561553 44:-0.92870498 45:-0.66879337 46:-0.84547653 47:-0.74455724 48:-0.94230098 49:-0.91695842 50:-0.48728781 51:-0.58074501 52:-0.82455174 53:-0.80926022 54:-0.77909127 55:-0.9635309 56:0.46858077 57:-0.26757234 58:1.7108672 59:0.15215966 60:0.38360744 61:-0.21310298 62:0.76026874 63:-0.87196102 64:-0.32603117 65:1.3577565 66:1.6186914 67:-0.21751797 68:0.48812434 69:0.084664719 70:-0.47801388 
0 0.1816255798154747 0 1:-0.42361074 2:-0.45957266 3:0.15711512 4:-0.68434024 5:-1.286599 6:-0.27522291 7:-1.0762101 8:-0.36805657 9:0.026970377 10:0.35309618 11:0.29948107 12:-0.086334832 13:0.37117347 14:0.72601595 15:0.39626863 16:1.129323 17:0.20878359 18:0.99249482 19:1.1474981 20:0.52959454 21:-0.51953073 22:-0.38482364 23:-0.33775991 24:0.89442217 25:-0.74592412 26:-0.49088802 27:-0.63326636 28:1.363846 29:0.091201113 30:0.084685308 31:1.5028707 32:0.45906916 33:0.091007443 34:0.63328293 35:-0.25475379 36:-0.5349495 37:-0.50747398 38:-0.53723242 39:-0.78717486 40:-0.065310533 41:-0.97715471 42:-0.21335996 43:-0.57125829 44:-0.43127068 45:-0.26334791 46:-0.29541301 47:-0.047333357 48:-0.48280617 49:-0.68102217 50:-0.62004458 51:-0.72399456 52:-0.65285314 53:-0.68361918 54:-0.63242139 55:-0.50747209 56:-0.54005994 57:-0.4887208 58:1.0510653 59:-0.92380682 60:-0.33473644 61:-0.78942324 62:1.1878888 63:-0.0012461318 64:0.14811245 65:1.2256511 66:0.28398735 67:0.12307291 68:1.481315 69:0.084664719 70:0.54587262 
-0 0 0.1340557509945885 1:0.73217198 2:0.29926358 3:-1.5343028 4:0.77721035 5:0.15359163 6:0.94118467 7:-0.021715238 8:1.1043064 9:0.83118089 10:-1.0196656 11:-0.8324874 12:-1.1047417 13:-0.20895962 14:-0.39032334 15:-1.0077362 16:-0.24035284 17:-0.89754086 18:-0.85636804 19:-0.34589164 20:-1.3322572 21:-0.15299686 22:-0.0045220465 23:0.63698672 24:-0.55107901 25:0.41918894 26:-0.83787953 27:1.4801856 28:-0.69598123 29:1.2652872 30:0.50946713 31:0.11660053 32:-0.4505734 33:0.19225096 34:-1.1736594 35:1.0573054 36:0.52761689 37:1.2589784 38:0.92606657 39:0.71716826 40:0.95901623 41:-0.37880433 42:1.0445976 43:1.2463931 44:1.0205583 45:0.92051244 46:1.1619774 47:1.2525567 48:1.1028155 49:1.1286524 50:0.47999029 51:0.85904019 52:0.92739075 53:1.1897994 54:0.98922782 55:1.4328898 56:0.081018851 57:0.5054911 58:-0.41281854 59:0.41532527 60:-1.4366867 61:1.5432159 62:-0.34109753 63:1.265258 64:0.51319799 65:0.33835875 66:-0.11104845 67:0.14388934 68:-0.049511 69:-1.2941607 70:-0.43783371 
-0 0.001422142437987991 0 1:0.39749833 2:0.34094818 3:-1.0378271 4:0.71062177 5:0.65938113 6:0.51056422 7:0.050780386 8:0.64974142 9:-0.02138098 10:-0.8974618 11:-0.56487958 12:-0.54927531 13:-0.14911116 14:-0.33267104 15:-0.55651022 16:0.31033533 17:-0.40751944 18:-0.62042862 19:0.053973861 20:-1.0794293 21:-0.012245745 22:-0.24279674 23:-0.10439999 24:-0.45341809 25:0.06276352 26:-0.82994807 27:3.1531171 28:-0.66674237 29:0.25595257 30:-0.24001707 31:-0.55278139 32:-0.78598142 33:-0.39203287 34:-0.83206584 35:0.89940834 36:0.70421717 37:0.79500299 38:0.68714792 39:0.59667018 40:0.99060267 41:-0.21080476 42:0.91488632 43:1.1052782 44:1.1041403 45:0.49496814 46:0.88105395 47:1.0238772 48:0.69271622 49:0.79843401 50:0.58235113 51:0.3909433 52:0.64455186 53:0.85873034 54:0.67455831 55:0.60575663 56:-0.063832885 57:-0.2280902 58:-0.25187832 59:0.061850271 60:-1.2766048 61:1.823336 62:-0.43912525 63:0.10563503 64:-0.091831683 65:0.073945554 66:-0.71502844 67:-0.38906027 68:-0.16245603 69:-0.71965011 70:-0.21063833 
-0 0 0.0670112920646608 1:1.1622117 2:0.093312925 3:-0.97075196 4:0.98802491 5:0.40142463 6:1.3279611 7:-0.62950555 8:1.2541845 9:0.43443349 10:-1.1742085 11:-0.37912526 12:-0.92567836 13:-0.25543594 14:-0.57927933 15:-0.93948121 16:0.14707255 17:-0.35919175 18:-0.93650189 19:0.24992207 20:-1.4574038 21:-0.06868813 22:0.51883637 23:1.4316895 24:-0.17309123 25:0.2752567 26:-0.81794988 27:0.086978642 28:-0.45254914 29:1.5640158 30:0.41872265 31:0.2981156 32:0.092395502 33:0.71992284 34:-1.1178112 35:0.92168858 36:0.27092092 37:1.0595482 38:0.79197702 39:0.78842805 40:0.82489538 41:-0.46125405 42:0.94476339 43:1.3243098 44:0.9972221 45:0.69730765 46:1.2499751 47:0.96558486 48:0.74921673 49:0.91434716 50:0.56348078 51:0.66661258 52:0.82904536 53:0.99313264 54:1.1259029 55:1.0073221 56:0.43854369 57:1.3428329 58:-0.043973808 59:0.46196736 60:-1.3788019 61:0.14466208 62:-0.33805624 63:1.7551615 64:0.2445579 65:0.54349564 66:0.12053234 67:0.56846169 68:-0.080587933 69:-0.71965011 70:-0.03894057 
-0.03283117459718509 0.02680794457949359 0.2549105389348541 1:1.2090724 2:0.21322048 3:-0.67632668 4:1.1281291 5:0.8080689 6:1.2843275 7:-0.74087665 8:1.1367672 9:-0.0057250879 10:-0.94635832 11:-0.037174277 12:-0.72844383 13:-0.23673138 14:-0.62754289 15:-0.94242464 16:0.10994179 17:-0.39099498 18:-0.36549159 19:0.15397828 20:-0.71737618 21:0.4955657 22:0.15676277 23:0.43335304 24:-0.032772224 25:0.23571318 26:-0.80369407 27:0.20088528 28:-0.13185755 29:0.61233699 30:0.56688164 31:0.009700746 32:0.29850916 33:0.41414095 34:-0.83524578 35:0.88822267 36:0.44477623 37:0.65366366 38:0.67002753 39:0.77029829 40:0.69514048 41:-0.59735148 42:1.0130518 43:0.93604991 44:0.68332233 45:0.47408505 46:0.9305438 47:0.85927524 48:0.63830455 49:0.76106408 50:0.45328835 51:0.75337798 52:0.99803898 53:0.76851042 54:0.81271827 55:0.57391656 56:0.25499543 57:0.23132317 58:0.10050826 59:0.24541924 60:-1.3101498 61:0.15411703 62:-0.051930377 63:0.34670841 64:0.61554656 65:0.15651267 66:0.37597619 67:0.37333901 68:0.26835065 69:-0.71965011 70:-0.68188422 
-0 0 0.091255251535691 1:1.1858308 2:0.19546934 3:-0.93999538 4:1.0266051 5:0.51655387 6:1.2635754 7:-0.58926011 8:1.2206497 9:0.43724345 10:-1.0675425 11:-0.63177033 12:-0.8845376 13:-0.35808383 14:-0.682267 15:-1.0411058 16:0.061908493 17:-0.42517388 18:-0.64169224 19:0.24534378 20:-0.97155926 21:0.50835052 22:0.16868059 23:0.59399383 24:-0.21620404 25:0.43196593 26:-0.76224457 27:-0.0064933955 28:-0.33045039 29:0.34473622 30:0.6174689 31:0.56311095 32:0.27692046 33:0.57413456 34:-0.9769026 35:1.0963306 36:0.40856506 37:0.91258279 38:0.94180838 39:0.62209534 40:0.82620786 41:-0.52056996 42:1.0823396 43:1.0957089 44:0.82900853 45:0.82433013 46:1.0832302 47:0.91844199 48:0.59533638 49:0.79493389 50:0.7062955 51:0.91735047 52:1.0399633 53:0.89072531 54:0.94004689 55:0.53670288 56:0.53547025 57:0.46383216 58:-0.094634338 59:0.42526977 60:-0.87094234 61:-0.010922952 62:-0.28792522 63:-0.087680394 64:0.49048193 65:0.76768186 66:0.48407459 67:0.52123724 68:0.12782311 69:0.084664719 70:-1.0540307 
-0 -0.02396171292737467 0.02272161756763107 1:-0.35109203 2:-0.44796161 3:0.62749476 4:-0.056976412 5:0.57923519 6:-0.25367018 7:-1.0911642 8:-0.046613046 9:-0.08398294 10:-0.2973854 11:0.6860411 12:0.99620966 13:-1.5791046 14:0.54615977 15:1.0691302 16:-1.4313934 17:1.6433048 18:0.0054541553 19:-0.88790637 20:0.75316312 21:-1.4036611 22:0.34847748 23:0.032707246 24:-0.28047128 25:-0.42989485 26:0.051964345 27:-0.51778675 28:0.33417953 29:-0.64638627 30:0.38115727 31:1.191122 32:0.20126728 33:0.22683583 34:0.20234768 35:-0.60648947 36:-0.5251236 37:-0.42722613 38:-0.48613831 39:0.17654364 40:-0.25982881 41:-0.93042921 42:-0.2962728 43:-0.50965041 44:-0.10978451 45:0.064307774 46:0.44687504 47:-0.072365246 48:0.23822847 49:-0.067212037 50:-0.25000712 51:-0.12273874 52:-0.19033848 53:-0.33712644 54:-0.34636788 55:-0.17458634 56:0.49785311 57:0.1516963 58:-0.31638105 59:-0.28352157 60:0.93140719 61:-0.2505628 62:0.84218532 63:-0.63083885 64:0.52993585 65:0.94317944 66:0.48257567 67:0.40067152 68:0.57791765 69:0.084664719 70:1.0922215 
-0.123467460906587 -0 0 1:-0.58614751 2:-0.44486465 3:1.1897941 4:0.25906318 5:1.3173554 6:-0.42340465 7:-0.667789 8:-0.36040029 9:-0.097391307 10:-0.60918148 11:0.44936946 12:1.945608 13:-1.920073 14:0.99379119 15:1.9694943 16:-2.1709869 17:1.7005706 18:1.3034631 19:-2.436618 20:1.9694517 21:-0.4448309 22:-0.86056981 23:-1.1604155 24:-0.4374563 25:-0.69144754 26:0.27451875 27:-0.75420349 28:1.6003952 29:-1.0177717 30:-0.96260738 31:-0.55801449 32:-0.47913589 33:-0.9212596 34:1.5426404 35:-0.79102944 36:-0.51638731 37:-0.95327265 38:-0.79440327 39:-0.69927813 40:-0.75978647 41:-0.6648716 42:-0.40715959 43:-0.89215578 44:-0.57393432 45:-0.8402964 46:-0.49133882 47:-0.90519462 48:-0.52370549 49:-0.3824047 50:-0.78267679 51:-0.54105269 52:-0.53544228 53:-0.95484299 54:-0.88844007 55:-0.7546187 56:-0.83727303 57:-1.1017971 58:-0.48276223 59:-0.45529158 60:2.3831243 61:-0.84755622 62:2.2336904 63:-1.0326492 64:-0.92983169 65:-0.69650844 66:-0.40007955 67:-1.0083375 68:1.9073415 69:0.084664719 70:1.4802578 
-0 -0 0.002064389905128229 1:-0.96791058 2:-0.32081586 3:0.32625061 4:-1.269067 5:-1.0999184 6:-1.1229533 7:1.2535057 8:-1.1467881 9:1.0605658 10:2.1202306 11:1.4000661 12:0.24457181 13:0.4106717 14:0.45994653 15:0.76426323 16:0.38053943 17:-0.097133597 18:-0.30436029 19:0.81477887 20:-0.22190689 21:-1.1349663 22:1.8073605 23:0.16111345 24:1.7467742 25:0.7280652 26:-0.28241849 27:-0.30744841 28:0.87229278 29:-0.019694087 30:0.66477833 31:2.771159 32:2.4344819 33:0.2121881 34:0.90597667 35:-0.84748212 36:-0.36372569 37:-0.63358951 38:-0.87557768 39:-0.46945625 40:-0.77364622 41:0.40912039 42:-0.9092824 43:-0.82499666 44:-0.57216306 45:-0.54943878 46:-0.47747384 47:-0.40220537 48:-0.409971 49:-0.93004932 50:-0.52670114 51:-0.72146197 52:-0.56558912 53:-0.53453993 54:-0.43791695 55:-0.10770444 56:1.7010036 57:0.13012056 58:1.4689361 59:0.73974107 60:0.59521877 61:-0.046211792 62:0.5182234 63:0.24735674 64:0.99159536 65:2.5768714 66:2.2026863 67:0.48534822 68:0.19217935 69:0.084664719 70:-0.50787934 
-0.3945303795547485 -0 0 1:-1.0044563 2:-0.3543151 3:0.076566858 4:-1.2307129 5:-0.94210244 6:-1.1845157 7:0.26860247 8:-1.2519699 9:0.67925267 10:1.9445906 11:0.60533242 12:0.46157605 13:0.74076735 14:0.93722458 15:0.73473644 16:0.68814009 17:-0.085168887 18:0.63224712 19:0.93680493 20:-0.051114507 21:-0.60053203 22:0.76171863 23:-0.21345781 24:2.2683701 25:0.03253416 26:-0.20188452 27:-0.46904233 28:1.5003426 29:-0.31827544 30:-0.36407765 31:0.85532638 32:2.1974518 33:-0.12625984 34:1.3088202 35:-1.0812536 36:-0.39374588 37:-0.72376915 38:-1.0819157 39:-0.67841822 40:-1.1756207 41:-0.43566039 42:-1.2097891 43:-1.0115092 44:-1.0497299 45:-0.99623888 46:-0.91942907 47:-0.75078085 48:-0.83189333 49:-1.2180625 50:-0.97092456 51:-0.96147948 52:-0.83566768 53:-0.88866323 54:-0.91853447 55:-0.62969246 56:0.4342038 57:-0.42708818 58:1.7688159 59:-0.18590443 60:0.45492901 61:-0.50723272 62:0.72893591 63:-0.37145945 64:-0.47833089 65:0.5492367 66:1.708715 67:-0.13240201 68:0.39799513 69:0.084664719 70:-0.15522875 
-0 -0.004268374090106912 0.006327271400623741 1:-0.9486447 2:-0.3606937 3:0.23776669 4:-1.2427883 5:-1.0659617 6:-1.1302803 7:0.76982255 8:-1.1352473 9:0.85497385 10:2.0906777 11:0.25151353 12:0.28887852 13:0.47339264 14:0.7011999 15:0.67655601 16:0.25706049 17:-0.24708276 18:-0.16505095 19:1.2272429 20:-0.16236129 21:-0.90893611 22:0.95293527 23:0.37915671 24:1.9484962 25:0.34852952 26:-0.21692013 27:-0.29426266 28:1.0134405 29:0.43803105 30:0.57480487 31:1.4125294 32:1.8760845 33:-0.065608554 34:0.93550797 35:-0.83260316 36:-0.40750938 37:-0.64421308 38:-0.8796489 39:-0.54459558 40:-0.80779532 41:-0.22615315 42:-0.92088608 43:-0.85723412 44:-0.68831645 45:-0.40710425 46:-0.82415634 47:-0.48864785 48:-0.49049731 49:-0.85394005 50:-0.49227842 51:-0.77198568 52:-0.60451272 53:-0.55825871 54:-0.42579653 55:-0.38873241 56:0.45154299 57:0.32880581 58:1.6014017 59:0.18295723 60:0.77006875 61:-0.16483942 62:0.66831767 63:0.51813671 64:0.64455029 65:1.0209061 66:1.6536283 67:-0.062357031 68:0.39205833 69:0.084664719 70:0.13518118 
-0.6908935999399815 -0 0 1:-0.92773541 2:-0.35355758 3:0.003859342 4:-1.204591 5:-1.0042672 6:-1.0751522 7:0.37667116 8:-1.1019775 9:0.98713651 10:1.8870193 11:0.52815993 12:0.23812918 13:0.4126093 14:0.87040792 15:0.57863359 16:0.38084512 17:-0.19408375 18:-0.24465459 19:1.4194288 20:-0.10837911 21:-0.33302827 22:0.79667757 23:0.24326472 24:1.773021 25:0.016880879 26:-0.2489125 27:-0.20172768 28:1.1961845 29:-0.19513868 30:0.34386119 31:1.5021499 32:2.0866291 33:-0.18285525 34:0.95947906 35:-0.89005988 36:-0.38955255 37:-0.44514094 38:-0.9281143 39:-0.60340274 40:-0.84912115 41:-0.47053595 42:-0.94507788 43:-0.75133189 44:-0.59873681 45:-0.65885599 46:-0.49985316 47:-0.38631239 48:-0.57523856 49:-0.83290796 50:-0.57334302 51:-0.70406381 52:-0.51373666 53:-0.70617174 54:-0.50000432 55:-0.40286681 56:0.50422986 57:0.27448186 58:1.703527 59:-0.23695773 60:0.42240503 61:0.029859698 62:0.75163696 63:-0.072244361 64:0.24955412 65:0.90557413 66:1.8661056 67:-0.27278425 68:0.55950794 69:1.291137 70:0.289168 
-0.04970069007130818 -0 0 1:-0.94853228 2:-0.38375727 3:0.11493855 4:-1.201128 5:-1.0026176 6:-1.1170924 7:0.25872464 8:-1.1644825 9:0.72014219 10:1.8554804 11:0.86809912 12:0.45464994 13:0.62262529 14:0.83933751 15:0.70288292 16:0.55434886 17:0.0074123023 18:0.25503593 19:1.4542385 20:-0.082330484 21:-0.45488474 22:0.47282659 23:-0.14634494 24:2.0076249 25:0.058288194 26:-0.24270576 27:-0.38901961 28:1.466007 29:-0.53157304 30:0.0068488889 31:1.7173567 32:2.2053937 33:-0.5509754 34:1.2331406 35:-0.9002113 36:-0.41368617 37:-0.73188938 38:-0.97268481 39:-0.60687829 40:-1.011589 41:-0.43947354 42:-1.0023363 43:-0.88128056 44:-0.94309118 45:-0.86330324 46:-0.79294641 47:-0.63511117 48:-0.74936801 49:-1.1281607 50:-0.75445422 51:-0.869226 52:-0.74671222 53:-0.84919474 54:-0.97890389 55:-0.71424996 56:0.24493627 57:-0.22250237 58:1.6177645 59:-0.094313347 60:0.45393682 61:-0.29193523 62:0.81101309 63:-0.55989719 64:-0.23975264 65:1.1157216 66:1.6953924 67:-0.58736005 68:0.53066561 69:0.084664719 70:0.093381367 
-0.2509387417646934 -0 0 1:-1.0135727 2:-0.48055506 3:-0.043792522 4:-1.2216063 5:-0.96291401 6:-1.1902286 7:-0.064511466 8:-1.2920245 9:-0.31652464 10:1.845381 11:0.50090425 12:0.71635528 13:0.8916018 14:1.0205297 15:0.85789736 16:0.90092704 17:0.11584661 18:0.71317974 19:1.573669 20:0.19107363 21:-0.33560766 22:0.21657522 23:-0.56888447 24:2.3804823 25:-0.52993708 26:-0.16303154 27:-0.5352394 28:1.7367085 29:-0.44272782 30:-0.59746804 31:0.9221262 32:2.464293 33:-0.78627387 34:1.4388653 35:-1.1547242 36:-0.55975859 37:-0.81829971 38:-1.1336896 39:-0.80072924 40:-1.2403492 41:-0.67306263 42:-1.3292603 43:-1.092583 44:-1.2314237 45:-1.1735463 46:-1.1779386 47:-0.96513368 48:-1.2653563 49:-1.3093768 50:-1.1284518 51:-1.2175592 52:-1.0232635 53:-1.2290028 54:-1.1139099 55:-1.1542283 56:-0.27188357 57:-0.7130798 58:2.044677 59:-0.74993649 60:0.41472361 61:-0.68001869 62:0.83127504 63:-0.56131661 64:-0.86786171 65:0.18203182 66:1.5770314 67:-0.84485279 68:0.55847735 69:0.084664719 70:-0.036272448 
-0.1751948295708855 -0 0 1:-0.95389076 2:-0.3494846 3:0.060700277 4:-1.160683 5:-0.91134868 6:-1.1154912 7:-0.51035085 8:-1.2210503 9:0.806563 10:1.830324 11:0.79394394 12:0.74591796 13:1.0005994 14:0.78783264 15:0.88140467 16:0.65388562 17:0.18320559 18:1.08309 19:1.5598691 20:0.3158216 21:-0.66643661 22:0.31447861 23:-0.24569046 24:2.2657565 25:-0.38198806 26:-0.23451606 27:-0.54172069 28:1.9232348 29:-0.47372966 30:-0.48260284 31:0.4615062 32:2.0702398 33:-0.72443993 34:1.4831716 35:-1.0184383 36:-0.34507539 37:-0.81346699 38:-1.0773915 39:-0.84753523 40:-1.0923978 41:-1.0035671 42:-1.1741954 43:-1.103127 44:-1.2384827 45:-1.0927545 46:-1.1743182 47:-0.84399744 48:-1.0191253 49:-1.3342785 50:-1.0223662 51:-1.2239315 52:-1.2924584 53:-1.2104512 54:-1.1490817 55:-1.1895069 56:0.01724775 57:-0.40416629 58:1.8046247 59:-0.53522277 60:0.18766316 61:-0.7418675 62:0.79332636 63:-0.49318473 64:-0.49845155 65:-0.34376962 66:0.87497015 67:-0.95464047 68:0.48541569 69:0.084664719 70:0.54397971 
-0 -0.01147153562478171 -0 1:1.2105436 2:-0.43609274 3:-0.83244697 4:1.0003179 5:0.74031356 6:1.2192414 7:-0.36599974 8:1.0466745 9:-0.64236488 10:-0.87052165 11:0.028512564 12:-0.87619794 13:0.087801362 14:-0.62556241 15:-0.88101594 16:0.38453139 17:-1.1478953 18:-1.175867 19:0.025607127 20:-0.5585651 21:0.28122123 22:0.51212198 23:0.35631267 24:-0.14817516 25:1.2771296 26:-0.76060452 27:0.13574883 28:-0.44781648 29:1.0186792 30:1.2031174 31:0.12004544 32:-0.098366806 33:0.25964318 34:-1.0867973 35:0.94883796 36:-0.50971352 37:1.0128899 38:0.98048996 39:1.3371644 40:0.66601676 41:-0.31226544 42:0.70787812 43:0.6430043 44:0.80490739 45:0.75473268 46:0.56991546 47:1.0851031 48:0.54281161 49:0.72567846 50:0.69175701 51:0.59968958 52:0.34720918 53:0.94525229 54:0.98544164 55:0.7383251 56:0.45635753 57:0.019266918 58:-0.046125592 59:1.2699425 60:-1.1607749 61:0.12417279 62:-0.38127865 63:0.62500182 64:0.9124337 65:0.21109701 66:-0.079649907 67:0.0077366564 68:-0.0013664214 69:-0.71965011 70:-0.88249728 
-0 -0.03987936782697912 -0 1:1.3332912 2:-0.41675824 3:-0.66363825 4:1.0554078 5:0.46681696 6:1.2642954 7:-0.099810054 8:1.3571847 9:-0.24227795 10:-1.0059573 11:-0.056768787 12:-0.89894523 13:-0.44698948 14:-0.47016472 15:-1.0636795 16:0.51049255 17:-1.0239092 18:-1.0988281 19:-0.35695368 20:-1.2524246 21:-0.36710578 22:1.0252907 23:1.1787488 24:-0.2274231 25:0.99065631 26:-0.72954223 27:0.070788987 28:-0.67896338 29:1.3639058 30:0.64639286 31:-0.32741482 32:-0.30806199 33:0.89482135 34:-1.2479291 35:1.2712132 36:-0.47760261 37:0.81398487 38:1.2238019 39:1.377645 40:0.89543887 41:-0.091102519 42:1.0342251 43:0.74052876 44:0.9120603 45:0.74166052 46:0.82429955 47:1.2381674 48:0.68960883 49:0.92899623 50:0.77832536 51:0.9228793 52:0.60339529 53:1.0925235 54:0.65842134 55:1.137532 56:0.95260906 57:0.91188392 58:0.11362264 59:0.81820823 60:-0.63838958 61:0.2040237 62:-0.60277286 63:1.3302858 64:0.51282309 65:-0.41183425 66:-0.075826708 67:0.89250544 68:-0.080868518 69:0.084664719 70:-1.0659083 
-0.00483306975475509 -0.07384500438804577 -0.006817416307968845 1:1.3285703 2:-0.33630506 3:-0.43699461 4:1.102211 5:0.81449685 6:1.4420717 7:-0.28924875 8:2.066105 9:-0.201012 10:-0.95558113 11:0.66303636 12:-0.90433393 13:0.18754731 14:-0.96402579 15:-1.0361238 16:-0.26469529 17:-1.0868826 18:-0.75642125 19:-0.58181119 20:-0.51674244 21:-0.72130843 22:0.0045325884 23:-0.32042689 24:-0.2972175 25:1.4887064 26:-0.71711995 27:0.30096045 28:-0.33929759 29:1.0219989 30:1.0349832 31:-0.074017359 32:0.23516642 33:-0.38776047 34:-0.91627035 35:0.63586819 36:-0.40456573 37:0.80407059 38:0.58016311 39:0.70170152 40:0.56258698 41:-0.11216857 42:0.96415483 43:0.1774606 44:0.31810872 45:0.39608412 46:0.2442578 47:0.69987868 48:0.8373301 49:0.80053181 50:0.35813306 51:0.55137691 52:0.57286486 53:0.8282032 54:0.54679873 55:0.66480127 56:0.0041599952 57:-0.68196709 58:-0.41684366 59:1.7062606 60:-0.81306115 61:0.53889805 62:-0.41071208 63:0.61812341 64:1.0174651 65:-0.28574567 66:0.5814456 67:-0.79222188 68:0.17467178 69:-1.7250437 70:1.8753926 
-0 -0.08858506271258532 -0 1:1.9378646 2:-0.30650032 3:-1.0439672 4:1.5335987 5:0.58703778 6:0.99145091 7:-0.21312597 8:0.47364659 9:-0.81350953 10:-0.91806631 11:-1.3208005 12:-1.2204634 13:-0.0088445734 14:-0.8658466 15:-1.0122945 16:0.089410332 17:-0.72941183 18:-0.65087534 19:-0.054424891 20:-0.62962062 21:0.65648202 22:0.54973319 23:0.96902713 24:-0.36483284 25:0.53714306 26:-0.76538593 27:-0.076477415 28:-0.69185202 29:0.86611171 30:0.40272868 31:-0.022386283 32:-0.23566861 33:0.8000962 34:-1.3705008 35:0.80382665 36:-0.2936259 37:0.89998715 38:0.92056974 39:1.2290481 40:0.52666169 41:-0.47913009 42:0.43986115 43:0.94915006 44:0.86808446 45:1.1439044 46:0.73447051 47:0.65515975 48:1.2095732 49:0.44183206 50:0.88488173 51:0.66844865 52:0.71828039 53:0.62283427 54:0.755185 55:0.37756735 56:0.77156941 57:1.1068508 58:0.026004172 59:0.42799852 60:-1.022537 61:-0.10681519 62:-0.45491632 63:0.96639982 64:0.33538138 65:0.0050390078 66:-0.0031920374 67:0.79196996 68:-0.34727604 69:-0.71965011 70:-0.10927177 
-0 -0.0007272538435482538 -0 1:1.666302 2:-0.3447867 3:-0.95594957 4:1.3770396 5:0.97670022 6:1.0632407 7:-0.029588397 8:0.51135657 9:-0.901536 10:-0.56894665 11:-0.76245423 12:-0.99942379 13:-0.18210238 14:-0.64687271 15:-1.0715437 16:0.47982388 17:-0.48801117 18:-0.63174598 19:0.60247199 20:-0.57575022 21:1.6990146 22:0.28059432 23:0.58393812 24:-0.16418425 25:0.72149953 26:-0.73642479 27:0.0801258 28:-0.44305909 29:0.23195996 30:0.60446001 31:0.18486434 32:0.22721681 33:0.82841296 34:-1.0596577 35:1.0904889 36:-0.3677402 37:1.0221308 38:1.0785887 39:1.295296 40:0.7187934 41:-0.22809191 42:0.53235347 43:0.95278232 44:0.69191134 45:0.99724462 46:0.79978388 47:0.52965354 48:1.2652824 49:0.36881026 50:1.0268889 51:0.93539679 52:0.69855992 53:0.68347013 54:0.48712545 55:0.27743103 56:0.39694737 57:0.61384112 58:-0.10048427 59:0.74382436 60:-0.79542008 61:0.13443023 62:-0.28965953 63:0.12905537 64:0.53246359 65:0.20807913 66:0.2684499 67:0.70035277 68:-0.15661815 69:0.084664719 70:-0.34310304 
-0 -0.02455701788679827 -0 1:1.1579721 2:-0.35259001 3:-1.1495589 4:0.92813736 5:0.27867464 6:0.91464958 7:0.05328609 8:0.63509341 9:-0.0066218698 10:-0.57206847 11:-1.8677 12:-1.4067237 13:-0.4050074 14:-0.93281434 15:-1.2342916 16:-0.22306227 17:-0.87530497 18:-0.92082983 19:-0.11466844 20:-0.96439081 21:0.51991452 22:0.19077296 23:1.2515754 24:-0.31780027 25:1.3168066 26:-0.71382211 27:-0.061607045 28:-0.72190144 29:1.0384402 30:1.5347628 31:0.76256309 32:-0.0086162793 33:0.99338292 34:-1.2114091 35:0.95183583 36:-0.38441575 37:0.88577711 38:0.99967954 39:0.79189849 40:0.5856609 41:-0.49204794 42:0.50578786 43:0.59368342 44:1.0258086 45:1.1623665 46:0.89397732 47:0.648857 48:1.1723766 49:0.64587648 50:1.0423094 51:0.98223392 52:0.95256721 53:1.3415544 54:1.1517948 55:1.1466889 56:0.24494817 57:1.1122649 58:-0.17894938 59:1.0790143 60:-0.51502969 61:-0.039402274 62:-0.6705272 63:1.0114531 64:1.2349481 65:0.95447842 66:0.33160019 67:1.2265357 68:-0.46523591 69:1.291137 70:-0.85161714 
-0 -0.04784676606555904 -0 1:0.45014767 2:-0.063292632 3:-1.3568865 4:0.82035117 5:0.50985375 6:0.91452395 7:0.31440811 8:0.99503761 9:0.60629487 10:-0.84140953 11:-2.1464023 12:-1.1480509 13:0.36403186 14:-1.4336586 15:-1.2907583 16:-0.30233327 17:-0.33861851 18:-1.0184964 19:-0.021910013 20:-0.40131348 21:1.5588275 22:0.071008063 23:1.334122 24:-0.72719393 25:0.58521018 26:-0.7539381 27:1.819572 28:-0.91679421 29:0.63917763 30:0.25329299 31:-0.28623669 32:-0.40914943 33:1.2499235 34:-1.1499841 35:0.52967633 36:-0.011525037 37:1.2929514 38:0.68835618 39:1.6978021 40:0.95316109 41:-0.07236189 42:0.88197888 43:1.5414146 44:1.5032065 45:1.1233088 46:1.2905916 47:1.1818197 48:1.5386758 49:1.5061002 50:1.9072276 51:1.6339088 52:1.6346727 53:1.3503936 54:1.0242107 55:1.0129248 56:0.16224649 57:1.4497162 58:-0.49814698 59:0.89122937 60:-0.55305323 61:2.2178139 62:-0.74004363 63:0.61326825 64:0.3192705 65:-0.1578274 66:-0.15188821 67:0.94676162 68:-0.21742749 69:-0.71965011 70:-0.3725958 
-0.001563983491665078 -0 -0 1:0.95657474 2:-0.32460009 3:-0.85738522 4:0.94498276 5:1.183544 6:0.76288205 7:0.77852108 8:0.89282997 9:-0.20513927 10:0.67589235 11:0.99850173 12:-0.25710151 13:0.026291373 14:-0.31808522 15:-0.34638509 16:-0.18018764 17:-1.3677403 18:-0.97660044 19:-1.1400596 20:-1.1051749 21:-1.7850506 22:2.4827925 23:0.7494603 24:0.77515699 25:1.5086715 26:-0.63604061 27:0.33946448 28:-0.12563541 29:0.80761968 30:1.0999118 31:-0.15044212 32:0.40512019 33:0.69268882 34:-0.238379 35:1.5182067 36:-0.35383026 37:1.3414032 38:1.5908667 39:0.9563315 40:1.6062465 41:0.30251622 42:1.7557655 43:0.94713053 44:0.42508148 45:0.84502138 46:0.17712729 47:0.47834407 48:0.14552616 49:0.35733462 50:0.24173525 51:0.12132917 52:0.1611657 53:0.39542888 54:0.94709916 55:1.5764711 56:2.2407306 57:0.74554294 58:1.0649934 59:1.3364339 60:-0.011129956 61:0.86655574 62:0.040681354 63:0.78802354 64:1.8435521 65:0.10262411 66:0.64146952 67:0.71203728 68:0.46853838 69:0.084664719 70:-0.49201905 
-0 -0 -0.004808589288903435 1:0.83062148 2:-0.31291751 3:-0.77132811 4:0.82747757 5:1.0903172 6:0.67106119 7:1.203934 8:0.72771913 9:-0.082497716 10:0.72331114 11:0.57729518 12:-0.24876159 13:-0.16137753 14:-0.11395385 15:-0.41048188 16:-0.22770892 17:-1.1268861 18:-0.90843891 19:-1.4178258 20:-1.6013048 21:-2.3264554 22:2.942106 23:1.1668857 24:0.76896643 25:1.5822951 26:-0.65003887 27:0.13299279 28:-0.19053027 29:1.243492 30:0.51773038 31:-0.014185384 32:0.73615262 33:0.98904144 34:-0.2887496 35:1.4996659 36:-0.35412697 37:1.1867042 38:1.5586662 39:0.87859629 40:1.5334625 41:0.72513571 42:1.5790985 43:0.74963525 44:0.45927826 45:0.93511958 46:0.33794849 47:0.16446647 48:0.23095472 49:0.22903169 50:0.16527791 51:-0.16052626 52:0.11368222 53:0.39909291 54:0.87740765 55:1.4955638 56:2.8025902 57:1.2316294 58:0.98424099 59:1.5777562 60:-0.056718934 61:0.36640849 62:-0.11868649 63:1.5103205 64:0.62189395 65:0.025085301 66:1.4402873 67:1.0589899 68:0.37562841 69:-1.2941607 70:-0.13589723 
-0 -0.003983785746837676 -0 1:0.84640708 2:-0.30477356 3:-0.65477655 4:0.83593537 5:0.99325611 6:0.75434111 7:0.66781647 8:0.87179886 9:0.19377832 10:0.52545437 11:0.34847762 12:-0.26920238 13:-0.061386264 14:0.064877332 15:-0.15416469 16:-0.65532939 17:-1.3229513 18:-1.5174944 19:-1.6012504 20:-1.737055 21:-2.4083282 22:2.9906873 23:0.87453533 24:0.74625501 25:1.5298888 26:-0.65864574 27:0.24194052 28:-0.24998287 29:1.9962919 30:0.76741168 31:-0.48487961 32:0.32290169 33:0.60931378 34:-0.3705482 35:1.4161121 36:-0.34558652 37:1.0307621 38:1.404443 39:0.85527567 40:1.4795956 41:0.40632221 42:1.5782235 43:0.86170597 44:0.30639332 45:1.0245357 46:0.29924817 47:0.34052124 48:-0.039818943 49:0.14134421 50:0.034393907 51:0.24248114 52:0.42742794 53:0.41397388 54:0.87277121 55:1.8721616 56:2.6542619 57:0.81949567 58:0.88321449 59:1.2988086 60:-0.18052361 61:0.57194431 62:-0.12890953 63:2.2805329 64:1.0979889 65:-0.47519476 66:0.67762624 67:0.44520034 68:0.33702833 69:1.291137 70:-0.91539283 
-0.02897830693511782 -0 -0.01948727327651076 1:0.82938294 2:-0.40854798 3:-0.4841903 4:0.70871268 5:0.68548033 6:0.7479557 7:0.2880153 8:0.53324227 9:-0.7185258 10:-0.53874452 11:-0.57525678 12:-0.42442955 13:-0.93156602 14:-0.078039482 15:-1.1674746 16:0.60502785 17:-1.0005125 18:0.20771633 19:0.24930082 20:-0.8161806 21:0.22862854 22:0.2041243 23:0.33302222 24:0.19673573 25:0.73726446 26:-0.74472765 27:0.27716873 28:-0.16065098 29:0.87008857 30:0.85176027 31:0.87879061 32:0.52948099 33:1.0334977 34:-0.73092095 35:0.85364809 36:-0.47017387 37:0.53980155 38:1.0402648 39:1.7170097 40:0.66812459 41:0.10151196 42:0.76165528 43:0.7919211 44:1.0555605 45:0.73337629 46:1.0738091 47:1.001941 48:0.76254616 49:0.84599979 50:0.34147575 51:0.37413372 52:0.6086425 53:0.68489871 54:0.55970021 55:0.47783619 56:-0.058248467 57:-0.09403713 58:0.39738323 59:0.54059764 60:-0.81698552 61:0.36005646 62:0.090226831 63:0.78552436 64:0.68439649 65:1.2348115 66:0.7081907 67:1.0729131 68:0.35123427 69:0.084664719 70:-0.54463495 
-0 -0.2317813477679758 -0 1:0.83708185 2:-0.32713832 3:-0.73876271 4:0.73177541 5:0.40594002 6:0.91751266 7:0.0021395773 8:0.80001108 9:-0.18016753 10:-1.0517352 11:-0.19343522 12:-0.64558526 13:-0.5262871 14:-0.5563469 15:-1.3135002 16:0.32871204 17:-0.9033853 18:-0.17419971 19:-0.24772593 20:-0.51268468 21:0.44145007 22:0.20889346 23:0.34690565 24:0.074337499 25:0.45790885 26:-0.7226602 27:0.33239698 28:-0.22416317 29:0.70519186 30:0.46437077 31:0.51557758 32:0.17629977 33:0.56084576 34:-0.80076715 35:0.92280369 36:-0.35764338 37:0.77521601 38:0.99110838 39:1.4967709 40:0.70726763 41:-0.18688588 42:0.87962736 43:0.99289792 44:1.1402762 45:0.47477117 46:1.2132651 47:1.0399016 48:0.84796966 49:1.1625316 50:0.86406188 51:1.1881014 52:0.95520321 53:0.77794266 54:0.98529364 55:0.7955489 56:0.12495845 57:0.12615402 58:0.43665421 59:0.41951658 60:-0.65043071 61:0.56080044 62:-0.016159013 63:0.5603967 64:0.23916032 65:0.68657271 66:0.3635938 67:0.58454086 68:0.43061096 69:-1.2941607 70:-1.0986385 
-0 -0.02455569166668338 -0 1:0.85079417 2:-0.3364468 3:-0.96734026 4:0.69425365 5:0.20246962 6:0.8732735 7:0.31317632 8:0.83669492 9:0.098363263 10:-0.84786835 11:-0.026516124 12:-0.78379187 13:-0.41687231 14:-0.75538844 15:-1.4375412 16:0.14474203 17:-0.92327474 18:0.2827326 19:-0.73587899 20:-0.95348939 21:-0.80989141 22:0.68990989 23:0.74341315 24:-0.066844182 25:0.76543948 26:-0.76143514 27:0.23030579 28:-0.39740876 29:1.36969 30:0.81233052 31:0.5081113 32:0.13536863 33:0.87750083 34:-0.95864402 35:1.1339834 36:-0.38130754 37:0.93191595 38:1.2060161 39:1.2974377 40:0.78508277 41:-0.0027760661 42:1.0847623 43:0.77551271 44:1.2472314 45:0.4573883 46:1.1351283 47:0.80461527 48:0.69578817 49:1.085925 50:0.80106553 51:0.93860496 52:0.774145 53:0.82089932 54:0.87490112 55:0.83840758 56:0.67243767 57:0.57005841 58:0.23401673 59:0.75073145 60:-1.006181 61:0.30749198 62:-0.25385559 63:1.0521136 64:0.7603203 65:0.54429228 66:0.31424795 67:0.86929898 68:0.17079675 69:0.084664719 70:-1.1855025 
